{"learner":{"attributes":{"best_iteration":"9","best_ntree_limit":"10","scikit_learn":"{\"n_estimators\": 10, \"objective\": \"reg:linear\", \"max_depth\": null, \"max_leaves\": null, \"max_bin\": null, \"grow_policy\": null, \"learning_rate\": null, \"verbosity\": null, \"booster\": null, \"tree_method\": null, \"gamma\": null, \"min_child_weight\": null, \"max_delta_step\": null, \"subsample\": null, \"sampling_method\": null, \"colsample_bytree\": null, \"colsample_bylevel\": null, \"colsample_bynode\": null, \"reg_alpha\": null, \"reg_lambda\": null, \"scale_pos_weight\": null, \"base_score\": null, \"missing\": NaN, \"num_parallel_tree\": null, \"random_state\": null, \"n_jobs\": null, \"monotone_constraints\": null, \"interaction_constraints\": null, \"importance_type\": null, \"gpu_id\": null, \"validate_parameters\": null, \"predictor\": null, \"enable_categorical\": false, \"feature_types\": null, \"max_cat_to_onehot\": null, \"max_cat_threshold\": null, \"eval_metric\": null, \"early_stopping_rounds\": null, \"callbacks\": null, \"kwargs\": {\"seed\": 123}, \"_estimator_type\": \"regressor\"}"},"feature_names":["sex","highest_qualification","rural","disability_status","is_water_filter","chew","smoke","alcohol","treatment_source","marital_status","injury_treatment_type","illness_type","symptoms_pertaining_illness","sought_medical_care","diagnosed_for","regular_treatment_source","iscoveredbyhealthscheme"],"feature_types":["int","int","int","int","int","int","int","int","int","int","int","int","int","int","int","int","int"],"gradient_booster":{"model":{"gbtree_model_param":{"num_parallel_tree":"1","num_trees":"10","size_leaf_vector":"0"},"tree_info":[0,0,0,0,0,0,0,0,0,0],"trees":[{"base_weights":[3.0311941E1,2.6524858E1,3.830938E1,3.567857E1,2.6123903E1,3.8549694E1,2.088889E1,1.3625E1,3.7025642E1,2.7715635E1,2.3978603E1,3.659454E1,4.0216797E1,2.3E1,9E0,2.2083334E1,3.857353E1,3.9533333E1,2.7354753E1,2.2891365E1,2.8238373E1,1.5875E1,3.679149E1,4.1260273E1,3.3144737E1,2.4E1,6.25E0,2.5832823E1,2.928395E1,2.2461319E1,3.4454544E1,2.2053572E1,3.0694916E1,1.876389E1,2.6618557E1,2.7908108E1,3.3101696E1,1.3194445E1,2.2896084E1,3.595E1,9.75E0,1.2142858E1,2.4204546E1,1E1,3.1245613E1],"categories":[],"categories_nodes":[],"categories_segments":[],"categories_sizes":[],"default_left":[1,1,1,1,1,1,1,0,1,1,1,1,1,0,0,1,0,0,1,1,1,0,0,0,0,0,0,1,1,1,1,1,1,0,0,0,0,0,0,0,0,0,0,0,0],"id":0,"left_children":[1,3,5,7,9,11,13,-1,15,17,19,21,23,-1,-1,25,-1,-1,27,29,31,-1,-1,-1,-1,-1,-1,33,35,37,39,41,43,-1,-1,-1,-1,-1,-1,-1,-1,-1,-1,-1,-1],"loss_changes":[4.641325E4,2.9804375E3,1.2920625E3,7.4325E2,2.8355E3,1.351875E2,1.8888916E1,0E0,5.019922E1,1.4006875E3,1.4098906E3,3.87125E2,5.2159375E2,0E0,0E0,3.2083252E1,0E0,0E0,9.1121875E2,1.0113125E3,6.296875E2,0E0,0E0,0E0,0E0,0E0,0E0,1.3112344E3,3.5257812E2,1.1040156E3,5.587793E1,3.029834E2,3.599453E2,0E0,0E0,0E0,0E0,0E0,0E0,0E0,0E0,0E0,0E0,0E0,0E0],"parents":[2147483647,0,0,1,1,2,2,3,3,4,4,5,5,6,6,8,8,9,9,10,10,11,11,12,12,15,15,18,18,19,19,20,20,27,27,28,28,29,29,30,30,31,31,32,32],"right_children":[2,4,6,8,10,12,14,-1,16,18,20,22,24,-1,-1,26,-1,-1,28,30,32,-1,-1,-1,-1,-1,-1,34,36,38,40,42,44,-1,-1,-1,-1,-1,-1,-1,-1,-1,-1,-1,-1],"split_conditions":[4.5E0,1.3E1,7.5E0,1.5E0,1.5E0,5E-1,3.5E0,4.0875E0,5E-1,5E-1,3.5E0,2E0,2.5E0,6.9E0,2.7E0,1.5E0,1.1572059E1,1.1860001E1,3E0,1.55E1,5.5E0,4.7625003E0,1.1037447E1,1.2378082E1,9.943421E0,7.2000003E0,1.8750001E0,5E-1,2.5E0,5E-1,6.5E0,5E-1,2E0,5.629167E0,7.9855676E0,8.372433E0,9.93051E0,3.9583335E0,6.8688254E0,1.0785001E1,2.9250002E0,3.6428573E0,7.261364E0,3E0,9.373684E0],"split_indices":[9,14,11,15,1,12,1,0,0,6,6,3,1,0,0,1,0,0,12,14,1,0,0,0,0,0,0,0,6,0,1,4,5,0,0,0,0,0,0,0,0,0,0,0,0],"split_type":[0,0,0,0,0,0,0,0,0,0,0,0,0,0,0,0,0,0,0,0,0,0,0,0,0,0,0,0,0,0,0,0,0,0,0,0,0,0,0,0,0,0,0,0,0],"sum_hessian":[1.565E3,1.065E3,5E2,4.1E1,1.024E3,4.92E2,8E0,3E0,3.8E1,5.81E2,4.43E2,2.37E2,2.55E2,6E0,2E0,5E0,3.3E1,1.4E1,5.67E2,3.58E2,8.5E1,3E0,2.34E2,2.18E2,3.7E1,4E0,1E0,3.25E2,2.42E2,3.48E2,1E1,2.7E1,5.8E1,3.5E1,2.9E2,1.84E2,5.8E1,1.7E1,3.31E2,9E0,1E0,6E0,2.1E1,2E0,5.6E1],"tree_param":{"num_deleted":"0","num_feature":"17","num_nodes":"45","size_leaf_vector":"0"}},{"base_weights":[2.1323114E1,1.8676527E1,2.691182E1,1.9023958E1,1.2640572E1,3.2738213E1,2.633526E1,1.963939E1,1.5464464E1,5.548137E0,1.709112E1,3.3921886E1,1.3308769E1,2.6513117E1,1.2950001E1,2.570981E1,1.9333006E1,9.426612E0,1.6626335E1,-2.7173615E0,7.75038E0,1.7935125E1,1.5473334E0,1.3286011E1,2.6690529E1,1.0559376E1,2.6706722E1,1.4293948E1,1.9649845E1,8.003324E0,1.3074238E1,1.4928553E1,2.1402418E1,-3.3468752E0,-9.722223E-1,1.3364217E1,4.9881535E0,1.8201723E1,4.435416E0,-7.4278355E-1,3.0637836E0,2.7171919E1,2.140162E1,7.4639707E0,2.7053156E1,1.9143478E1,1.2186581E1,1.967275E1,1.0637836E0,9.277316E0,4.6141706E0,6.9351497E0,1.5287594E1,2.394471E1,1.2527405E1,1.5734174E1,7.5721645E-1,5.5850806E0,-1.6844127E0,1.6282234E1,2.7377773E1,2.2315605E1,2.0812786E0],"categories":[],"categories_nodes":[],"categories_segments":[],"categories_sizes":[],"default_left":[1,1,1,1,1,1,1,1,1,1,1,0,0,1,0,1,1,1,1,1,1,1,1,0,1,0,1,1,1,1,0,1,1,0,0,1,1,0,0,0,0,1,1,0,0,0,0,0,0,0,0,0,0,0,0,0,0,0,0,0,0,0,0],"id":1,"left_children":[1,3,5,7,9,11,13,15,17,19,21,-1,-1,23,-1,25,27,29,31,33,35,37,39,-1,41,-1,43,45,47,49,-1,51,53,-1,-1,55,57,-1,-1,-1,-1,59,61,-1,-1,-1,-1,-1,-1,-1,-1,-1,-1,-1,-1,-1,-1,-1,-1,-1,-1,-1,-1],"loss_changes":[2.2660062E4,1.9949688E3,8.208125E2,1.9000938E3,1.8306543E3,4.9146484E2,7.5415625E2,1.0912812E3,9.1659375E2,4.7612653E2,4.5765332E2,0E0,0E0,7.108125E2,0E0,2.9193164E2,1.0235E3,3.553662E1,7.103047E2,3.3376274E0,2.4347095E2,4.5231445E1,1.2694273E1,0E0,5.565E2,0E0,3.1398438E1,2.981328E2,3.0515625E2,5.2183594E1,0E0,1.7236523E2,3.9948438E2,0E0,0E0,1.67354E2,6.915314E1,0E0,0E0,0E0,0E0,4.64375E2,6.952129E2,0E0,0E0,0E0,0E0,0E0,0E0,0E0,0E0,0E0,0E0,0E0,0E0,0E0,0E0,0E0,0E0,0E0,0E0,0E0,0E0],"parents":[2147483647,0,0,1,1,2,2,3,3,4,4,5,5,6,6,7,7,8,8,9,9,10,10,13,13,15,15,16,16,17,17,18,18,19,19,20,20,21,21,22,22,24,24,26,26,27,27,28,28,29,29,31,31,32,32,35,35,36,36,41,41,42,42],"right_children":[2,4,6,8,10,12,14,16,18,20,22,-1,-1,24,-1,26,28,30,32,34,36,38,40,-1,42,-1,44,46,48,50,-1,52,54,-1,-1,56,58,-1,-1,-1,-1,60,62,-1,-1,-1,-1,-1,-1,-1,-1,-1,-1,-1,-1,-1,-1,-1,-1,-1,-1,-1,-1],"split_conditions":[4.5E0,1.5E0,1.25E1,5.5E0,2.5E0,1.15E1,7.5E0,1.3E1,3E0,5E-1,3.5E0,1.0176566E1,3.992631E0,5E0,3.8850005E0,1.5E0,1.5E0,2.5E0,3.5E0,2E0,5E-1,6.5E0,5E-1,3.9858034E0,3.5E0,3.1678128E0,5E-1,5E-1,2.05E1,4.5E0,3.9222715E0,5E-1,1.5E0,-1.0040627E0,-2.9166672E-1,9.5E0,5E-1,5.460517E0,1.3306249E0,-2.2283508E-1,9.1913515E-1,1.5E0,1.5E0,2.2391913E0,8.115947E0,5.743044E0,3.6559744E0,5.9018254E0,3.191351E-1,2.783195E0,1.3842512E0,2.080545E0,4.5862784E0,7.183413E0,3.7582216E0,4.7202525E0,2.2716494E-1,1.6755242E0,-5.053238E-1,4.8846703E0,8.213332E0,6.6946816E0,6.2438357E-1],"split_indices":[9,9,14,5,9,12,11,14,8,0,9,0,0,15,0,15,5,12,6,1,1,11,4,0,5,0,13,5,14,1,0,0,7,0,0,8,2,0,0,0,0,5,16,0,0,0,0,0,0,0,0,0,0,0,0,0,0,0,0,0,0,0,0],"split_type":[0,0,0,0,0,0,0,0,0,0,0,0,0,0,0,0,0,0,0,0,0,0,0,0,0,0,0,0,0,0,0,0,0,0,0,0,0,0,0,0,0,0,0,0,0,0,0,0,0,0,0,0,0,0,0,0,0,0,0,0,0,0,0],"sum_hessian":[1.565E3,1.065E3,5E2,1.005E3,6E1,4E1,4.6E2,8.53E2,1.52E2,2.4E1,3.6E1,3.7E1,3E0,4.53E2,7E0,3.7E1,8.16E2,2.6E1,1.26E2,5E0,1.9E1,3.4E1,2E0,7E0,4.46E2,3E0,3.4E1,5.1E1,7.65E2,2.1E1,5E0,9.6E1,3E1,3E0,2E0,5E0,1.4E1,3.3E1,1E0,1E0,1E0,4.05E2,4.1E1,1E0,3.3E1,1.3E1,3.8E1,7.64E2,1E0,1.4E1,7E0,5E0,9.1E1,2.2E1,8E0,4E0,1E0,1.3E1,1E0,9E0,3.96E2,3.9E1,2E0],"tree_param":{"num_deleted":"0","num_feature":"17","num_nodes":"63","size_leaf_vector":"0"}},{"base_weights":[1.4996173E1,1.3136561E1,1.8923018E1,2.1004183E1,1.2919674E1,1.7894714E1,2.1277607E1,1.5611881E1,2.7428267E1,1.2275781E1,1.5014837E1,1.863919E1,1.1902804E1,1.5375776E1,2.2722271E1,4.4484777E0,2.9281399E1,1.204899E1,2.0529501E1,1.2932422E1,1.7900251E1,9.746198E0,1.8869652E1,8.276773E0,1.5134703E1,1.6604328E1,7.2846637E0,2.2988207E1,5.0426316E0,1.9073578E1,1.1791806E1,9.042163E-1,2.151482E1,1.4432313E1,8.408186E0,-2.0940027E0,1.8127966E1,1.4240761E0,1.1648718E1,1.730093E1,2.0438066E1,7.590389E-2,9.567653E0,1.6599945E1,4.757435E0,1.7366444E1,4.7185884E0,9.456149E0,-1.7863817E0,2.314519E1,2.624611E0,9.23808E0,2.0975454E1,1.2899478E1,1.0431631E1,1.1619357E1,2.421896E1,1.1530989E1,1.5949039E1,6.124361E0,1.150176E1,1.8451063E1,1.0152487E1,1.743285E1,4.630234E0,2.0751999E1,7.3719993E0,1.1785812E0,-1.6160641E0,7.3750277E0,1.5946241E1,1.3321512E1,2.130349E1,1.0378218E1,2.883936E0,2.5258896E1,2.0179901E1],"categories":[],"categories_nodes":[],"categories_segments":[],"categories_sizes":[],"default_left":[1,1,1,1,1,1,1,0,1,1,1,1,1,1,1,0,0,1,1,1,1,1,1,1,1,1,1,1,0,1,1,0,1,1,1,0,1,0,0,1,1,1,1,0,0,1,0,1,0,1,0,0,0,0,0,0,0,0,0,0,0,0,0,0,0,0,0,0,0,0,0,0,0,0,0,0,0],"id":2,"left_children":[1,3,5,7,9,11,13,-1,15,17,19,21,23,25,27,-1,-1,29,31,33,35,37,39,41,43,45,47,49,-1,51,53,-1,55,57,59,-1,61,-1,-1,63,65,67,69,-1,-1,71,-1,73,-1,75,-1,-1,-1,-1,-1,-1,-1,-1,-1,-1,-1,-1,-1,-1,-1,-1,-1,-1,-1,-1,-1,-1,-1,-1,-1,-1,-1],"loss_changes":[1.1186969E4,1.5476406E3,8.3228125E2,5.0708887E2,1.2187031E3,1.3617344E3,9.0397656E2,0E0,3.3817285E2,1.2520078E3,1.2105781E3,4.59625E2,3.6693018E2,1.9713428E2,4.2946875E2,0E0,0E0,1.1878594E3,3.672881E2,8.490293E2,4.841504E2,1.417414E2,3.9683594E2,2.3217297E2,2.4033643E2,1.626294E2,1.3507816E2,3.0367578E2,0E0,2.9258105E2,1.00596094E3,0E0,2.2700684E2,2.8254492E2,1.9803564E2,0E0,6.263086E1,0E0,0E0,1.8504688E2,4.4998438E2,9.367442E0,1.4812732E2,0E0,0E0,1.1433252E2,0E0,3.7008667E-1,0E0,1.9853516E2,0E0,0E0,0E0,0E0,0E0,0E0,0E0,0E0,0E0,0E0,0E0,0E0,0E0,0E0,0E0,0E0,0E0,0E0,0E0,0E0,0E0,0E0,0E0,0E0,0E0,0E0,0E0],"parents":[2147483647,0,0,1,1,2,2,3,3,4,4,5,5,6,6,8,8,9,9,10,10,11,11,12,12,13,13,14,14,17,17,18,18,19,19,20,20,21,21,22,22,23,23,24,24,25,25,26,26,27,27,29,29,30,30,32,32,33,33,34,34,36,36,39,39,40,40,41,41,42,42,45,45,47,47,49,49],"right_children":[2,4,6,8,10,12,14,-1,16,18,20,22,24,26,28,-1,-1,30,32,34,36,38,40,42,44,46,48,50,-1,52,54,-1,56,58,60,-1,62,-1,-1,64,66,68,70,-1,-1,72,-1,74,-1,76,-1,-1,-1,-1,-1,-1,-1,-1,-1,-1,-1,-1,-1,-1,-1,-1,-1,-1,-1,-1,-1,-1,-1,-1,-1,-1,-1],"split_conditions":[4.5E0,5E-1,5E-1,7.5E0,3.5E0,5E-1,5E-1,4.6835647E0,5E-1,1.65E1,1.5E0,4.5E0,4.5E0,3.5E0,1.15E1,1.3345433E0,8.78442E0,1.3E1,5E-1,1.5E0,5E-1,6.5E0,1.5E0,5E-1,1.45E1,1.5E0,1.2E1,3E0,1.5127896E0,2.5E0,1.5E0,2.712649E-1,6E0,5.5E0,2.5E0,-6.282008E-1,1.05E1,4.2722285E-1,3.4946156E0,1.5E0,7.5E0,5E-1,5E-1,4.979984E0,1.4272305E0,8E0,1.4155766E0,4.5E0,-5.3591454E-1,8E0,7.873833E-1,2.771424E0,6.2926364E0,3.8698435E0,3.1294894E0,3.4858072E0,7.2656884E0,3.4592967E0,4.784712E0,1.8373084E0,3.450528E0,5.5353193E0,3.045746E0,5.229855E0,1.3890702E0,6.2256E0,2.2115998E0,3.535744E-1,-4.8481923E-1,2.2125084E0,4.7838726E0,3.9964538E0,6.391047E0,3.1134655E0,8.651808E-1,7.577669E0,6.053971E0],"split_indices":[9,6,0,12,6,1,4,0,4,14,12,15,12,5,12,0,0,14,13,7,5,8,12,4,14,7,8,10,0,15,1,0,15,8,7,0,12,0,0,13,11,2,2,0,0,8,0,1,0,12,0,0,0,0,0,0,0,0,0,0,0,0,0,0,0,0,0,0,0,0,0,0,0,0,0,0,0],"split_type":[0,0,0,0,0,0,0,0,0,0,0,0,0,0,0,0,0,0,0,0,0,0,0,0,0,0,0,0,0,0,0,0,0,0,0,0,0,0,0,0,0,0,0,0,0,0,0,0,0,0,0,0,0,0,0,0,0,0,0,0,0,0,0,0,0,0,0,0,0,0,0,0,0,0,0,0,0],"sum_hessian":[1.565E3,1.065E3,5E2,2.6E1,1.039E3,3.54E2,1.46E2,1.6E1,1E1,8E2,2.39E2,3.13E2,4.1E1,3.1E1,1.15E2,1E0,9E0,7.81E2,1.9E1,1.42E2,9.7E1,9E0,3.04E2,2.1E1,2E1,2.6E1,5E0,1.13E2,2E0,2.5E1,7.56E2,1E0,1.8E1,1.05E2,3.7E1,1E0,9.6E1,2E0,7E0,1.58E2,1.46E2,3E0,1.8E1,1.7E1,3E0,2.4E1,2E0,4E0,1E0,1.12E2,1E0,5E0,2E1,4.12E2,3.44E2,5E0,1.3E1,3.9E1,6.6E1,2.3E1,1.4E1,9.1E1,5E0,1.56E2,2E0,1.42E2,4E0,2E0,1E0,1.5E1,3E0,1.4E1,1E1,3E0,1E0,6.1E1,5.1E1],"tree_param":{"num_deleted":"0","num_feature":"17","num_nodes":"77","size_leaf_vector":"0"}},{"base_weights":[1.0578292E1,9.255042E0,1.3372715E1,1.5251169E1,9.090474E0,2.160073E1,1.3109262E1,1.120382E1,2.0119692E1,9.307457E0,5.455499E0,3.4744482E0,2.2727795E1,1.244926E1,1.4660916E1,5.3654313E0,1.2071658E1,3.7812061E0,2.137542E1,9.729714E0,7.082581E0,7.9577136E-1,8.456518E0,1.2953212E1,8.347547E0,1.4860915E1,5.7401913E-1,1.700131E0,8.180666E0,1.2664761E1,2.180666E0,2.2609434E1,5.13465E0,6.0128193E0,9.957842E0,5.935143E0,1.0165022E1,8.894164E0,-7.128351E-1,9.048147E0,-1.2646621E0,5.9414234E0,1.3143761E1,1.7272043E0,9.219061E0,1.4341664E1,2.389415E1,6.0273046E0,-3.477108E0,1.3133009E1,3.522892E0,3.9812498E0,1.2853725E1,9.673742E0,1.3351838E1,6.7879276E0,3.2953694E0,4.592193E0,1.3090958E1,1.3962168E1,2.5507736E0,-5.0961924E0,8.761637E-1,1.1434885E1,6.6863494E0,-2.5662875E0,6.6929436E-1,2.843833E-1,8.325243E0,1.206907E1,1.4194674E1,-1.0373726E-1,5.440956E0,6.3068614E0,1.210288E1,1.1073225E1,1.5146583E1],"categories":[],"categories_nodes":[],"categories_segments":[],"categories_sizes":[],"default_left":[1,1,1,1,1,1,1,1,1,1,1,0,0,1,1,1,1,0,1,1,1,1,1,1,1,1,0,1,0,1,0,0,0,1,1,1,1,1,1,1,1,1,1,1,1,1,0,0,0,0,0,0,0,0,0,0,0,0,0,0,0,0,0,0,0,0,0,0,0,0,0,0,0,0,0,0,0],"id":3,"left_children":[1,3,5,7,9,11,13,15,17,19,21,-1,-1,23,25,27,29,-1,31,33,35,37,39,41,43,45,-1,47,-1,49,-1,-1,-1,51,53,55,57,59,61,63,65,67,69,71,73,75,-1,-1,-1,-1,-1,-1,-1,-1,-1,-1,-1,-1,-1,-1,-1,-1,-1,-1,-1,-1,-1,-1,-1,-1,-1,-1,-1,-1,-1,-1,-1],"loss_changes":[5.6668438E3,9.132656E2,8.0284375E2,3.0660742E2,7.694922E2,2.0704639E2,3.172422E2,2.1365479E1,1.4485889E2,8.517656E2,8.462903E2,0E0,0E0,6.1327734E2,3.859004E2,2.7366516E1,5.4511475E1,0E0,8.432178E1,6.3627344E2,5.055747E2,3.1177228E2,2.2424219E2,3.347578E2,2.2063525E2,3.0460547E2,0E0,8.8166016E1,0E0,9.382324E0,0E0,0E0,0E0,6.4371497E2,6.152344E2,2.4551904E2,6.247246E2,9.297897E1,1.576984E2,1.2083716E2,9.269463E0,1.3248605E2,1.675039E2,4.1362404E1,2.2600586E2,1.8217969E2,0E0,0E0,0E0,0E0,0E0,0E0,0E0,0E0,0E0,0E0,0E0,0E0,0E0,0E0,0E0,0E0,0E0,0E0,0E0,0E0,0E0,0E0,0E0,0E0,0E0,0E0,0E0,0E0,0E0,0E0,0E0],"parents":[2147483647,0,0,1,1,2,2,3,3,4,4,5,5,6,6,7,7,8,8,9,9,10,10,13,13,14,14,15,15,16,16,18,18,19,19,20,20,21,21,22,22,23,23,24,24,25,25,27,27,29,29,33,33,34,34,35,35,36,36,37,37,38,38,39,39,40,40,41,41,42,42,43,43,44,44,45,45],"right_children":[2,4,6,8,10,12,14,16,18,20,22,-1,-1,24,26,28,30,-1,32,34,36,38,40,42,44,46,-1,48,-1,50,-1,-1,-1,52,54,56,58,60,62,64,66,68,70,72,74,76,-1,-1,-1,-1,-1,-1,-1,-1,-1,-1,-1,-1,-1,-1,-1,-1,-1,-1,-1,-1,-1,-1,-1,-1,-1,-1,-1,-1,-1,-1,-1],"split_conditions":[4.5E0,5E-1,6E0,7.5E0,1.5E0,1.5E0,5E-1,5E-1,5E-1,3.5E0,2.5E0,1.0423346E0,6.818339E0,5E-1,7E0,7E0,4.5E0,1.1343619E0,1.5E0,1.5E0,2.5E0,2.5E0,3.5E0,5.5E0,5E-1,1.55E1,1.7220575E-1,3E0,2.4541998E0,7E0,6.5419984E-1,6.7828307E0,1.5403951E0,6.5E0,5E-1,5E0,5.5E0,4.5E0,5E-1,9.5E0,5E-1,6.5E0,5E-1,7E0,1E1,5E-1,7.1682453E0,1.8081914E0,-1.0431324E0,3.9399028E0,1.0568676E0,1.194375E0,3.8561177E0,2.9021227E0,4.005552E0,2.0363784E0,9.8861086E-1,1.377658E0,3.9272873E0,4.1886506E0,7.6523215E-1,-1.5288578E0,2.6284912E-1,3.4304657E0,2.005905E0,-7.698863E-1,2.0078832E-1,8.531499E-2,2.497573E0,3.620721E0,4.2584023E0,-3.1121178E-2,1.6322869E0,1.8920585E0,3.630864E0,3.3219676E0,4.543975E0],"split_indices":[9,6,14,12,9,5,0,4,4,5,9,0,0,1,11,1,5,0,7,5,6,3,9,15,4,14,0,1,0,1,0,0,0,1,2,1,8,1,0,8,4,8,12,1,8,4,0,0,0,0,0,0,0,0,0,0,0,0,0,0,0,0,0,0,0,0,0,0,0,0,0,0,0,0,0,0,0],"split_type":[0,0,0,0,0,0,0,0,0,0,0,0,0,0,0,0,0,0,0,0,0,0,0,0,0,0,0,0,0,0,0,0,0,0,0,0,0,0,0,0,0,0,0,0,0,0,0,0,0,0,0,0,0,0,0,0,0,0,0,0,0,0,0,0,0,0,0,0,0,0,0,0,0,0,0,0,0],"sum_hessian":[1.565E3,1.065E3,5E2,2.6E1,1.039E3,1.3E1,4.87E2,1.6E1,1E1,9.79E2,6E1,1E0,1.2E1,3.48E2,1.39E2,3E0,1.3E1,1E0,9E0,8.2E2,1.59E2,2.4E1,3.6E1,3.08E2,4E1,1.37E2,2E0,2E0,1E0,1.2E1,1E0,8E0,1E0,4.9E1,7.71E2,1.18E2,4.1E1,3E0,2.1E1,3.4E1,2E0,9E0,2.99E2,5E0,3.5E1,1.32E2,5E0,1E0,1E0,1.1E1,1E0,3.9E1,1E1,7.15E2,5.6E1,8.8E1,3E1,1.5E1,2.6E1,1E0,2E0,5E0,1.6E1,1.5E1,1.9E1,1E0,1E0,3E0,6E0,1.54E2,1.45E2,4E0,1E0,1.9E1,1.6E1,2.9E1,1.03E2],"tree_param":{"num_deleted":"0","num_feature":"17","num_nodes":"77","size_leaf_vector":"0"}},{"base_weights":[7.4608865E0,6.52278E0,9.442044E0,6.4519935E0,1.6310072E1,1.35441265E1,9.056736E0,1.1354626E1,6.317735E0,1.9078794E1,-1.5113163E-1,6.5246153E0,1.531447E1,9.386906E0,6.975038E0,8.364451E0,1.4943565E1,5.892106E0,7.7088776E0,7.778973E0,1.0047888E0,2.9532814E0,1.5617951E1,9.158332E0,1.4566863E1,7.293575E0,-2.2516086E0,2.7923508E0,8.921242E0,4.5859184E0,1.6735718E1,5.7237067E0,1.2139817E1,6.2562346E0,9.807541E0,8.371341E0,1.8161983E0,9.3588E0,-1.67529E-1,4.8579435E0,1.6589264E1,5.52516E0,8.9445915E0,4.5606165E0,9.631347E0,1.9988073E1,7.6732545E0,1.0854856E1,5.5386887E0,-6.824775E-1,1.28505945E1,7.2893286E0,3.2879229E0,-2.3770905E0,9.960822E0,4.1550307E0,9.476049E0,-1.6383612E1,6.8061533E0,8.429283E0,-2.9280376E0,1.7967873E1,7.122917E-1,9.93289E0,3.2747352E0,9.494976E0,4.5921516E-1],"categories":[],"categories_nodes":[],"categories_segments":[],"categories_sizes":[],"default_left":[1,1,1,1,1,1,1,1,1,0,0,1,1,1,1,1,1,1,1,1,0,0,0,1,1,1,0,0,1,0,1,1,1,1,1,0,0,1,1,1,1,1,1,0,0,0,0,0,0,0,0,0,0,0,0,0,0,0,0,0,0,0,0,0,0,0,0],"id":4,"left_children":[1,3,5,7,9,11,13,15,17,-1,-1,19,21,23,25,27,29,31,33,35,-1,-1,-1,37,39,41,-1,-1,43,-1,45,47,49,51,53,-1,-1,55,57,59,61,63,65,-1,-1,-1,-1,-1,-1,-1,-1,-1,-1,-1,-1,-1,-1,-1,-1,-1,-1,-1,-1,-1,-1,-1,-1],"loss_changes":[2.848875E3,6.333047E2,6.692031E2,6.2597656E2,3.2191882E2,4.0958398E2,2.51375E2,1.6475732E2,5.668203E2,0E0,0E0,6.142218E1,7.391992E1,3.3427344E2,2.1333716E2,2.7831177E1,1.2743872E2,7.679961E2,6.672588E2,1.3053223E1,0E0,0E0,0E0,7.138594E2,2.1394019E2,1.4035889E2,0E0,0E0,2.522705E0,0E0,1.1189575E2,6.775293E2,1.9104639E2,4.1761523E2,2.0297461E2,0E0,0E0,1.8820898E2,1.1292816E3,1.359068E2,2.4985913E2,3.0472742E2,1.4508667E2,0E0,0E0,0E0,0E0,0E0,0E0,0E0,0E0,0E0,0E0,0E0,0E0,0E0,0E0,0E0,0E0,0E0,0E0,0E0,0E0,0E0,0E0,0E0,0E0],"parents":[2147483647,0,0,1,1,2,2,3,3,4,4,5,5,6,6,7,7,8,8,11,11,12,12,13,13,14,14,15,15,16,16,17,17,18,18,19,19,23,23,24,24,25,25,28,28,30,30,31,31,32,32,33,33,34,34,37,37,38,38,39,39,40,40,41,41,42,42],"right_children":[2,4,6,8,10,12,14,16,18,-1,-1,20,22,24,26,28,30,32,34,36,-1,-1,-1,38,40,42,-1,-1,44,-1,46,48,50,52,54,-1,-1,56,58,60,62,64,66,-1,-1,-1,-1,-1,-1,-1,-1,-1,-1,-1,-1,-1,-1,-1,-1,-1,-1,-1,-1,-1,-1,-1,-1],"split_conditions":[4.5E0,4.5E0,1.25E1,5E-1,6.5E0,4.5E0,2.5E0,7.5E0,3.5E0,5.7236385E0,-4.533949E-2,5E0,5E-1,1.55E1,1.5E0,2.5E0,1.5E0,1.65E1,3E0,3.5E0,3.0143663E-1,8.859845E-1,4.6853857E0,1.45E1,5E0,1.25E1,-6.7548263E-1,8.3770525E-1,5E-1,1.3757756E0,4.5E0,1.3E1,5E-1,1.5E0,5E-1,2.5114024E0,5.448595E-1,1.5E0,5E-1,1.1E1,5E-1,3E0,7E0,1.368185E0,2.889404E0,5.9964223E0,2.3019764E0,3.2564569E0,1.6616067E0,-2.0474325E-1,3.8551786E0,2.1867986E0,9.863769E-1,-7.1312714E-1,2.9882467E0,1.2465093E0,2.842815E0,-4.915084E0,2.041846E0,2.528785E0,-8.7841135E-1,5.390362E0,2.1368752E-1,2.979867E0,9.824206E-1,2.8484929E0,1.3776456E-1],"split_indices":[9,3,14,6,1,15,1,12,6,0,0,1,5,14,13,14,5,14,12,15,0,0,0,14,15,8,0,0,4,0,5,14,13,7,5,0,0,5,4,8,2,8,11,0,0,0,0,0,0,0,0,0,0,0,0,0,0,0,0,0,0,0,0,0,0,0,0],"split_type":[0,0,0,0,0,0,0,0,0,0,0,0,0,0,0,0,0,0,0,0,0,0,0,0,0,0,0,0,0,0,0,0,0,0,0,0,0,0,0,0,0,0,0,0,0,0,0,0,0,0,0,0,0,0,0,0,0,0,0,0,0,0,0,0,0,0,0],"sum_hessian":[1.565E3,1.065E3,5E2,1.059E3,6E0,4E1,4.6E2,2.6E1,1.033E3,5E0,1E0,9E0,3.1E1,3.94E2,6.6E1,1.6E1,1E1,7.95E2,2.38E2,7E0,2E0,1E0,3E1,3.8E2,1.4E1,6.4E1,2E0,2E0,1.4E1,2E0,8E0,7.76E2,1.9E1,1.43E2,9.5E1,6E0,1E0,3.72E2,8E0,3E0,1.1E1,3.3E1,3.1E1,3E0,1.1E1,5E0,3E0,2.5E1,7.51E2,1E0,1.8E1,1.05E2,3.8E1,1E0,9.4E1,9E0,3.63E2,2E0,6E0,2E0,1E0,1E1,1E0,1E1,2.3E1,2.9E1,2E0],"tree_param":{"num_deleted":"0","num_feature":"17","num_nodes":"67","size_leaf_vector":"0"}},{"base_weights":[5.259745E0,4.598277E0,6.6566815E0,5.159437E0,3.7431085E0,1.2053695E1,6.488209E0,5.4001336E0,3.1822677E0,9.301052E-1,4.98912E0,3.9476311E0,1.3075736E1,5.9903927E0,7.682848E0,5.2747307E0,1.0791797E1,1.3462662E0,6.1924086E0,7.7131634E0,4.885486E-1,1.8664415E1,4.7370043E0,4.90772E0,1.4218567E1,6.2556615E0,3.3487654E0,9.069586E0,5.8943853E0,1.8821539E0,5.4036565E0,1.3003803E1,-1.7882411E-1,7.529797E-1,9.599046E0,-8.103914E0,7.053956E0,-4.54867E0,1.0114664E1,-5.1686664E0,9.195434E-1,1.7024088E1,4.5930657E0,1.5437679E0,5.817812E0,1.641281E1,6.8240023E0,7.344571E0,5.5236382E0,1.4711775E0,7.707859E0,9.227408E0,-1.4624767E0,6.726611E0,7.277042E-1,4.4109135E0,-1.047598E0,5.2366605E0,1.0877137E1,1.8866493E1,5.9509277E0,-7.108536E-1,4.4261742E-1,-1.7322726E0,2.5401647E0,8.400508E0,3.577079E0,1.1815254E1,-4.4439316E-2,-5.808078E0,-2.6688576E-2,-2.0844016E0,1.5604022E0,1.1316646E1,4.3613744E0,4.1710205E0,1.7757936E1,-1.8919868E0,1.0359994E1,-1.9718723E0,7.5918536E0,5.771321E0,4.139166E-1,-3.4387786E0,5.574627E0,3.8229814E-1,9.491462E0,7.373956E-1,9.446903E0,1.5309495E0,7.578406E0,3.6454368E0,-7.295484E0],"categories":[],"categories_nodes":[],"categories_segments":[],"categories_sizes":[],"default_left":[1,1,1,1,1,1,1,1,1,1,1,0,1,1,1,1,1,1,1,1,1,0,1,1,1,1,1,1,1,1,1,1,1,1,0,0,1,0,1,1,1,0,1,0,0,1,1,1,1,1,1,1,0,1,1,0,0,0,0,0,0,0,0,0,0,0,0,0,0,0,0,0,0,0,0,0,0,0,0,0,0,0,0,0,0,0,0,0,0,0,0,0,0],"id":5,"left_children":[1,3,5,7,9,11,13,15,17,19,21,-1,23,25,27,29,31,33,35,37,39,-1,41,43,45,47,49,51,53,55,57,59,61,63,-1,-1,65,-1,67,69,71,-1,73,-1,-1,75,77,79,81,83,85,87,-1,89,91,-1,-1,-1,-1,-1,-1,-1,-1,-1,-1,-1,-1,-1,-1,-1,-1,-1,-1,-1,-1,-1,-1,-1,-1,-1,-1,-1,-1,-1,-1,-1,-1,-1,-1,-1,-1,-1,-1],"loss_changes":[1.416418E3,4.9224805E2,3.7732812E2,2.8786328E2,1.4885039E3,6.4368164E1,2.4419531E2,3.284707E2,3.8958032E2,3.9158548E2,9.286743E2,0E0,4.2235107E1,2.2361035E2,2.937588E2,2.3433105E2,2.9353027E2,2.1800018E2,3.8972253E2,2.8158267E2,3.0953156E2,0E0,4.3646533E2,2.0316315E-1,5.025354E1,2.113164E2,2.6693613E2,1.4148438E2,2.7029517E2,1.6761093E2,4.3479785E2,3.0121533E2,1.3065118E0,1.9983092E2,0E0,0E0,9.167749E1,0E0,1.2146033E2,2.9435547E1,2.2848972E2,0E0,4.0084717E2,0E0,0E0,4.119873E1,1.4287965E2,3.0064062E2,2.4186963E2,5.2286383E2,1.27030396E2,1.3466113E2,0E0,2.3180786E2,2.606904E2,0E0,0E0,0E0,0E0,0E0,0E0,0E0,0E0,0E0,0E0,0E0,0E0,0E0,0E0,0E0,0E0,0E0,0E0,0E0,0E0,0E0,0E0,0E0,0E0,0E0,0E0,0E0,0E0,0E0,0E0,0E0,0E0,0E0,0E0,0E0,0E0,0E0,0E0],"parents":[2147483647,0,0,1,1,2,2,3,3,4,4,5,5,6,6,7,7,8,8,9,9,10,10,12,12,13,13,14,14,15,15,16,16,17,17,18,18,19,19,20,20,22,22,23,23,24,24,25,25,26,26,27,27,28,28,29,29,30,30,31,31,32,32,33,33,36,36,38,38,39,39,40,40,42,42,45,45,46,46,47,47,48,48,49,49,50,50,51,51,53,53,54,54],"right_children":[2,4,6,8,10,12,14,16,18,20,22,-1,24,26,28,30,32,34,36,38,40,-1,42,44,46,48,50,52,54,56,58,60,62,64,-1,-1,66,-1,68,70,72,-1,74,-1,-1,76,78,80,82,84,86,88,-1,90,92,-1,-1,-1,-1,-1,-1,-1,-1,-1,-1,-1,-1,-1,-1,-1,-1,-1,-1,-1,-1,-1,-1,-1,-1,-1,-1,-1,-1,-1,-1,-1,-1,-1,-1,-1,-1,-1,-1],"split_conditions":[4.5E0,2.5E0,6E0,1.5E0,3.5E0,5E0,5E-1,6.5E0,9.5E0,5E-1,5E-1,1.1842893E0,4.5E0,2E0,4.5E0,6E0,1.5E0,2E0,2.5E0,5E-1,5E-1,5.5993247E0,5E-1,5E-1,1.1E1,8.5E0,5E-1,3E0,4.5E0,2.5E0,1.45E1,7.5E0,5E-1,5E-1,2.8797138E0,-2.4311743E0,3.5E0,-1.364601E0,2.5E0,6.5E0,5E-1,5.1072264E0,7.5E0,4.6313038E-1,1.7453437E0,5E-1,8.5E0,5.5E0,5E-1,1E1,5E-1,5E-1,-4.3874303E-1,5E-1,1.5E0,1.3232741E0,-3.142794E-1,1.5709982E0,3.2631414E0,5.6599483E0,1.7852784E0,-2.1325608E-1,1.3278523E-1,-5.196818E-1,7.6204944E-1,2.5201526E0,1.0731238E0,3.5445764E0,-1.3331795E-2,-1.7424234E0,-8.006573E-3,-6.253205E-1,4.6812066E-1,3.3949938E0,1.3084123E0,1.2513062E0,5.327381E0,-5.675961E-1,3.1079984E0,-5.9156173E-1,2.2775562E0,1.7313963E0,1.2417498E-1,-1.0316336E0,1.6723882E0,1.1468945E-1,2.8474386E0,2.2121869E-1,2.8340712E0,4.5928487E-1,2.273522E0,1.093631E0,-2.1886454E0],"split_indices":[9,1,14,7,1,11,0,11,8,8,5,0,15,1,12,15,9,9,3,5,0,0,11,1,8,8,2,10,5,15,14,8,0,4,0,0,5,0,6,11,4,0,15,0,0,6,15,15,2,8,4,5,0,4,16,0,0,0,0,0,0,0,0,0,0,0,0,0,0,0,0,0,0,0,0,0,0,0,0,0,0,0,0,0,0,0,0,0,0,0,0,0,0],"split_type":[0,0,0,0,0,0,0,0,0,0,0,0,0,0,0,0,0,0,0,0,0,0,0,0,0,0,0,0,0,0,0,0,0,0,0,0,0,0,0,0,0,0,0,0,0,0,0,0,0,0,0,0,0,0,0,0,0,0,0,0,0,0,0,0,0,0,0,0,0,0,0,0,0,0,0,0,0,0,0,0,0,0,0,0,0,0,0,0,0,0,0,0,0],"sum_hessian":[1.565E3,1.065E3,5E2,6.4E2,4.25E2,1.3E1,4.87E2,5.69E2,7.1E1,1.31E2,2.94E2,2E0,1.1E1,3.48E2,1.39E2,5.58E2,1.1E1,4.5E1,2.6E1,7E0,1.24E2,4E0,2.9E2,2E0,9E0,3.15E2,3.3E1,7.6E1,6.3E1,2.1E1,5.37E2,9E0,2E0,4.3E1,2E0,1E0,2.5E1,1E0,6E0,8E0,1.16E2,2E0,2.88E2,1E0,1E0,6E0,3E0,1.23E2,1.92E2,2.4E1,9E0,7.5E1,1E0,5.4E1,9E0,1.1E1,1E1,5.23E2,1.4E1,4E0,5E0,1E0,1E0,1.8E1,2.5E1,1.7E1,8E0,5E0,1E0,7E0,1E0,2E1,9.6E1,8E0,2.8E2,1E0,5E0,1E0,2E0,3E0,1.2E2,1.83E2,9E0,1.1E1,1.3E1,2E0,7E0,2E0,7.3E1,8E0,4.6E1,7E0,2E0],"tree_param":{"num_deleted":"0","num_feature":"17","num_nodes":"93","size_leaf_vector":"0"}},{"base_weights":[3.7182655E0,8.65761E0,3.6128733E0,1.2177362E0,8.858324E0,3.1660209E0,4.565104E0,7.7385516E0,1.2234284E1,3.1132596E0,1.056762E1,7.938765E0,4.4190087E0,4.3050003E-1,8.6730585E0,3.0906773E-1,1.4557514E1,3.2471304E0,9.071209E-1,1.258978E1,-7.826681E-1,8.881427E0,-4.9240112E-2,1.1985891E1,4.3447337E0,-4.099869E0,3.307246E0,1.1409951E1,6.0986304E0,3.4920459E0,1.8653853E0,-2.1237702E0,2.9305036E0,9.827342E0,1.1913763E0,-3.6015377E0,3.5276775E0,4.2205234E0,8.357887E0,1.3778041E1,4.413306E0,5.907955E-1,7.5470586E0,6.972233E0,3.339773E0,1.1438198E0,4.038171E0,3.6080673E0,-3.737133E0,3.3748207E0,-3.230033E0,2.6521053E0,1.0150423E1,2.2492027E0,-4.6213818E-1,4.3619184E0,6.8366766E-2,1.0250487E1,3.27963E0],"categories":[],"categories_nodes":[],"categories_segments":[],"categories_sizes":[],"default_left":[1,1,1,0,1,1,1,1,1,1,1,1,1,1,1,0,0,1,1,0,0,1,1,0,1,0,0,1,1,1,1,1,1,1,1,0,0,1,1,0,0,0,0,0,0,0,0,0,0,0,0,0,0,0,0,0,0,0,0],"id":6,"left_children":[1,3,5,-1,7,9,11,13,15,17,19,21,23,25,27,-1,-1,29,31,-1,-1,33,35,-1,37,-1,-1,39,41,43,45,47,49,51,53,-1,-1,55,57,-1,-1,-1,-1,-1,-1,-1,-1,-1,-1,-1,-1,-1,-1,-1,-1,-1,-1,-1,-1],"loss_changes":[7.839336E2,3.699829E1,6.386992E2,0E0,2.2513916E1,3.7636328E2,2.0544238E2,1.7383118E2,1.6173077E2,3.0479688E2,1.7051831E2,1.4350708E2,2.1208008E2,6.5690155E1,9.247131E1,0E0,0E0,3.258047E2,3.8031552E2,0E0,0E0,1.1195227E2,5.082389E1,0E0,1.9751367E2,0E0,0E0,1.0488013E2,1.07229065E2,4.1815332E2,2.3055212E2,2.4467212E2,1.12178406E2,7.852783E0,6.2868357E0,0E0,0E0,2.6683057E2,9.13266E1,0E0,0E0,0E0,0E0,0E0,0E0,0E0,0E0,0E0,0E0,0E0,0E0,0E0,0E0,0E0,0E0,0E0,0E0,0E0,0E0],"parents":[2147483647,0,0,1,1,2,2,4,4,5,5,6,6,7,7,8,8,9,9,10,10,11,11,12,12,13,13,14,14,17,17,18,18,21,21,22,22,24,24,27,27,28,28,29,29,30,30,31,31,32,32,33,33,34,34,37,37,38,38],"right_children":[2,4,6,-1,8,10,12,14,16,18,20,22,24,26,28,-1,-1,30,32,-1,-1,34,36,-1,38,-1,-1,40,42,44,46,48,50,52,54,-1,-1,56,58,-1,-1,-1,-1,-1,-1,-1,-1,-1,-1,-1,-1,-1,-1,-1,-1,-1,-1,-1,-1],"split_conditions":[5.5E0,5E-1,4.5E0,3.653209E-1,4.5E0,4.5E0,1E0,2.5E0,6E0,1.5E0,6.5E0,4.5E0,5E-1,5E-1,6E0,9.272032E-2,4.3672543E0,5.5E0,2.5E0,3.7769341E0,-2.3480044E-1,1.05E1,5E-1,3.5957675E0,1.75E1,-1.2299607E0,9.9217385E-1,1.5E0,9.5E0,5E-1,2.5E0,5E-1,3.5E0,1.35E1,3E0,-1.0804614E0,1.0583034E0,1.45E1,1.5E0,4.1334124E0,1.3239919E0,1.7723866E-1,2.2641177E0,2.09167E0,1.0019319E0,3.4314597E-1,1.2114513E0,1.0824202E0,-1.12114E0,1.0124463E0,-9.6900994E-1,7.9563165E-1,3.0451272E0,6.747608E-1,-1.3864146E-1,1.3085756E0,2.051003E-2,3.0751464E0,9.8388904E-1],"split_indices":[14,13,9,0,5,3,8,12,15,9,1,5,6,0,15,0,0,5,9,0,0,12,0,0,14,0,0,13,15,8,6,1,9,14,1,0,0,14,13,0,0,0,0,0,0,0,0,0,0,0,0,0,0,0,0,0,0,0,0],"split_type":[0,0,0,0,0,0,0,0,0,0,0,0,0,0,0,0,0,0,0,0,0,0,0,0,0,0,0,0,0,0,0,0,0,0,0,0,0,0,0,0,0,0,0,0,0,0,0,0,0,0,0,0,0,0,0,0,0,0,0],"sum_hessian":[1.565E3,3.1E1,1.534E3,1E0,3E1,1.047E3,4.87E2,2.5E1,5E0,1.041E3,6E0,1.8E1,4.69E2,3E0,2.2E1,1E0,4E0,9.81E2,6E1,5E0,1E0,1.6E1,2E0,3E0,4.66E2,1E0,2E0,9E0,1.3E1,8.32E2,1.49E2,2.4E1,3.6E1,1.4E1,2E0,1E0,1E0,4.54E2,1.2E1,6E0,3E0,3E0,1E1,3.3E1,7.99E2,1.13E2,3.6E1,5E0,1.9E1,3.4E1,2E0,1E0,1.3E1,1E0,1E0,4.39E2,1.5E1,8E0,4E0],"tree_param":{"num_deleted":"0","num_feature":"17","num_nodes":"59","size_leaf_vector":"0"}},{"base_weights":[2.62451E0,5.117939E0,2.4832842E0,5.7460446E0,-4.183712E-2,2.8871486E0,1.6166389E0,-2.673682E0,6.0170603E0,2.5974183E0,-4.650075E0,7.9391713E0,2.8030927E0,-2.0643704E-1,2.4449263E0,4.056144E0,7.172731E0,-5.420047E0,4.8370037E0,-6.9237995E0,-1.5842336E0,1.6515865E0,1.064702E1,2.6928363E0,5.6684637E0,-2.3981352E0,1.7187388E-1,7.2655554E0,2.189058E0,8.2511866E-1,5.4688497E0,7.6075573E0,-1.3057518E0,5.7438145E0,1.5147495E-1,-2.3206587E0,6.3973846E0,5.152513E0,1.2063396E1,2.7415578E0,-2.765422E0,1.7479515E0,8.385593E0,1.0533075E0,-2.6126473E0,5.914623E0,-1.3269073E-2,9.452474E0,-5.361915E0,5.3259794E-2,3.2160218E0,4.7436957E0,-4.0421977E0,6.1081314E0,-3.3387508E0,6.553355E0,1.4097983E1,-2.0068493E0,4.8221588E-2,6.3540393E-1,-5.5944233E0,7.9055767E0,1.6905003E0,1.3026491E1,2.6608667E0,9.781371E0,2.6716108E0,-6.4874487E0,1.509689E0,6.1471653E0,-2.3071687E-1,1.1570813E1,4.438047E0,-1.6302756E0,-4.0052166E0,1.0841116E0,1.0203078E1,3.3276124E0,-2.7014655E-1,-5.1827655E0,1.2323577E1,-7.4507008E0,-5.9217167E-1,-2.246322E0,3.3918605E0,5.732948E0,1.8891532E0],"categories":[],"categories_nodes":[],"categories_segments":[],"categories_sizes":[],"default_left":[1,1,1,1,1,1,1,0,1,1,1,1,1,1,1,1,1,0,1,0,0,1,1,1,1,1,1,1,1,1,1,1,1,0,0,1,1,0,1,1,1,1,1,0,1,1,1,1,1,1,1,0,0,0,0,0,0,0,0,0,0,0,0,0,0,0,0,0,0,0,0,0,0,0,0,0,0,0,0,0,0,0,0,0,0,0,0],"id":7,"left_children":[1,3,5,7,9,11,13,-1,15,17,19,21,23,25,27,29,31,-1,33,-1,-1,35,37,39,41,43,45,47,49,51,53,55,57,-1,-1,59,61,-1,63,65,67,69,71,-1,73,75,77,79,81,83,85,-1,-1,-1,-1,-1,-1,-1,-1,-1,-1,-1,-1,-1,-1,-1,-1,-1,-1,-1,-1,-1,-1,-1,-1,-1,-1,-1,-1,-1,-1,-1,-1,-1,-1,-1,-1],"loss_changes":[5.387363E2,2.6923413E2,5.147422E2,1.8494653E2,1.3370137E2,4.0706836E2,7.162593E2,0E0,1.3407104E2,1.5190736E2,1.6914597E1,2.5482874E2,2.9939795E2,1.23954544E2,3.861985E2,1.278577E2,1.7214722E2,0E0,2.4623276E1,0E0,0E0,1.27955E2,2.3448486E1,2.6314453E2,3.6883386E2,1.9040192E1,1.3617184E2,4.9252722E2,6.8197205E2,2.099045E2,1.3300427E2,1.9498413E2,2.9445758E0,0E0,0E0,4.2264534E1,7.932274E0,0E0,3.778247E1,4.4313818E2,1.5300273E2,1.4069162E2,2.1269788E2,0E0,2.2198822E1,7.180046E1,1.08173584E2,6.5214026E2,2.5476822E1,7.907125E2,6.904917E2,0E0,0E0,0E0,0E0,0E0,0E0,0E0,0E0,0E0,0E0,0E0,0E0,0E0,0E0,0E0,0E0,0E0,0E0,0E0,0E0,0E0,0E0,0E0,0E0,0E0,0E0,0E0,0E0,0E0,0E0,0E0,0E0,0E0,0E0,0E0,0E0],"parents":[2147483647,0,0,1,1,2,2,3,3,4,4,5,5,6,6,8,8,9,9,10,10,11,11,12,12,13,13,14,14,15,15,16,16,18,18,21,21,22,22,23,23,24,24,25,25,26,26,27,27,28,28,29,29,30,30,31,31,32,32,35,35,36,36,38,38,39,39,40,40,41,41,42,42,44,44,45,45,46,46,47,47,48,48,49,49,50,50],"right_children":[2,4,6,8,10,12,14,-1,16,18,20,22,24,26,28,30,32,-1,34,-1,-1,36,38,40,42,44,46,48,50,52,54,56,58,-1,-1,60,62,-1,64,66,68,70,72,-1,74,76,78,80,82,84,86,-1,-1,-1,-1,-1,-1,-1,-1,-1,-1,-1,-1,-1,-1,-1,-1,-1,-1,-1,-1,-1,-1,-1,-1,-1,-1,-1,-1,-1,-1,-1,-1,-1,-1,-1,-1],"split_conditions":[1.35E1,1.15E1,2.5E0,1.5E0,6.5E0,5E-1,5.5E0,-8.0210465E-1,5E-1,5E-1,5E-1,1.5E0,1.55E1,5E-1,1E0,3E0,2.5E0,-1.6260141E0,2.5E0,-2.0771399E0,-4.7527012E-1,1.1E1,5E0,1.05E1,5.5E0,2E0,5E-1,1.5E0,6.5E0,9.5E0,4.5E0,5E-1,6.5E0,1.7231444E0,4.5442488E-2,6.5E0,5E0,1.545754E0,1.5E0,5E-1,1.1E1,2.5E0,1.1E1,3.1599227E-1,2E0,4.5E0,5E-1,5E-1,7E0,6.5E0,1.25E1,1.4231088E0,-1.2126594E0,1.8324395E0,-1.0016253E0,1.9660066E0,4.2293954E0,-6.0205483E-1,1.4466477E-2,1.9062118E-1,-1.6783271E0,2.371673E0,5.071501E-1,3.9079475E0,7.9826003E-1,2.9344115E0,8.014833E-1,-1.9462347E0,4.529067E-1,1.8441497E0,-6.921507E-2,3.471244E0,1.3314141E0,-4.890827E-1,-1.201565E0,3.252335E-1,3.0609236E0,9.9828374E-1,-8.1043966E-2,-1.5548297E0,3.6970732E0,-2.2352104E0,-1.7765151E-1,-6.738966E-1,1.0175582E0,1.7198844E0,5.66746E-1],"split_indices":[14,12,1,15,1,6,1,0,0,0,2,5,14,4,8,12,7,0,6,0,0,8,12,12,15,5,7,7,8,15,1,2,1,0,0,8,12,0,7,13,8,15,8,0,6,5,8,4,1,1,8,0,0,0,0,0,0,0,0,0,0,0,0,0,0,0,0,0,0,0,0,0,0,0,0,0,0,0,0,0,0,0,0,0,0,0,0],"split_type":[0,0,0,0,0,0,0,0,0,0,0,0,0,0,0,0,0,0,0,0,0,0,0,0,0,0,0,0,0,0,0,0,0,0,0,0,0,0,0,0,0,0,0,0,0,0,0,0,0,0,0,0,0,0,0,0,0,0,0,0,0,0,0,0,0,0,0,0,0,0,0,0,0,0,0,0,0,0,0,0,0,0,0,0,0,0,0],"sum_hessian":[1.565E3,8.2E1,1.483E3,7.3E1,9E0,1.01E3,4.73E2,2E0,7.1E1,6E0,3E0,1.5E1,9.95E2,1.48E2,3.25E2,2.8E1,4.3E1,1E0,5E0,1E0,2E0,5E0,1E1,9.6E2,3.5E1,2.1E1,1.27E2,1.5E1,3.1E2,9E0,1.9E1,4.1E1,2E0,4E0,1E0,3E0,2E0,3E0,7E0,9.52E2,8E0,1.5E1,2E1,1E0,2E1,3E0,1.24E2,1.3E1,2E0,1.01E2,2.09E2,5E0,4E0,1.8E1,1E0,3.7E1,4E0,1E0,1E0,2E0,1E0,1E0,1E0,6E0,1E0,8E0,9.44E2,4E0,4E0,4E0,1.1E1,1E1,1E1,1.3E1,7E0,2E0,1E0,8E0,1.16E2,2E0,1.1E1,1E0,1E0,6E1,4.1E1,7.1E1,1.38E2],"tree_param":{"num_deleted":"0","num_feature":"17","num_nodes":"87","size_leaf_vector":"0"}},{"base_weights":[1.8532419E0,6.662012E0,1.8086984E0,1.2790621E1,3.8277895E0,3.7110496E0,1.7055835E0,1.3574622E0,9.962842E0,4.2267942E0,-2.7026978E-1,2.0124736E0,1.0471331E0,4.4133887E0,-6.225521E0,-2.1389453E0,4.445477E0,1.8385603E0,-3.893155E0,1.5375309E0,2.5948195E0,-1.24850504E-1,1.5845276E0,5.9834075E0,3.2556152E-1,-1.6691408E0,-7.669141E0,2.882316E0,5.4045753E0,-4.6070395E0,3.680667E0,-5.885229E0,-1.2673874E0,-3.7361913E0,1.6311318E0,9.8244274E-1,3.1649342E0,-4.6193102E-1,1.6500243E0,1.112941E0,3.47559E0,1.01825714E-1,3.8651657E-1,3.540772E0,-8.5473555E-1,8.137657E0,3.6860275E0,4.3652987E0,1.2875366E-1,-9.184884E0,1.4270846E0,1.80016E0,-5.563043E-1,-7.265848E-2,5.9097085E0,6.006719E0,2.7213235E0,2.2430825E-1,-1.5448848E0,2.7684276E0,-2.1665905E0,-8.8348675E-1,2.2114816E0,9.781233E0,2.1267445E0],"categories":[],"categories_nodes":[],"categories_segments":[],"categories_sizes":[],"default_left":[1,1,1,0,1,1,1,1,0,1,1,1,1,1,1,0,1,1,1,1,1,1,1,0,1,0,0,1,1,0,1,0,0,1,1,1,1,1,1,1,1,0,0,0,0,0,0,0,0,0,0,0,0,0,0,0,0,0,0,0,0,0,0,0,0],"id":8,"left_children":[1,3,5,-1,7,9,11,13,-1,15,17,19,21,23,25,-1,27,29,31,33,35,37,39,-1,41,-1,-1,43,45,-1,47,-1,-1,49,51,53,55,57,59,61,63,-1,-1,-1,-1,-1,-1,-1,-1,-1,-1,-1,-1,-1,-1,-1,-1,-1,-1,-1,-1,-1,-1,-1,-1],"loss_changes":[3.2338623E2,1.9421796E2,2.983081E2,0E0,1.5318726E2,1.6335657E2,2.9594873E2,2.3603304E2,0E0,1.069541E2,8.35583E1,2.7397412E2,2.9684192E2,4.2977783E1,6.9321594E0,0E0,8.636951E1,1.0007135E2,1.3464027E1,2.805498E2,4.1054858E2,8.990528E1,2.8418323E2,0E0,1.5561879E-3,0E0,0E0,7.192558E1,1.6257861E2,0E0,1.4028473E1,0E0,0E0,2.9443863E2,2.0324829E2,6.190823E2,4.0218848E2,9.398537E1,1.08442406E2,5.721747E2,5.235395E2,0E0,0E0,0E0,0E0,0E0,0E0,0E0,0E0,0E0,0E0,0E0,0E0,0E0,0E0,0E0,0E0,0E0,0E0,0E0,0E0,0E0,0E0,0E0,0E0],"parents":[2147483647,0,0,1,1,2,2,4,4,5,5,6,6,7,7,9,9,10,10,11,11,12,12,13,13,14,14,16,16,17,17,18,18,19,19,20,20,21,21,22,22,24,24,27,27,28,28,30,30,33,33,34,34,35,35,36,36,37,37,38,38,39,39,40,40],"right_children":[2,4,6,-1,8,10,12,14,-1,16,18,20,22,24,26,-1,28,30,32,34,36,38,40,-1,42,-1,-1,44,46,-1,48,-1,-1,50,52,54,56,58,60,62,64,-1,-1,-1,-1,-1,-1,-1,-1,-1,-1,-1,-1,-1,-1,-1,-1,-1,-1,-1,-1,-1,-1,-1,-1],"split_conditions":[5E-1,6.5E0,1.25E1,3.8371863E0,4E0,1.15E1,2.5E0,1.5E0,2.9888527E0,1.5E0,6.5E0,5E-1,5.5E0,1.5E0,1.1E1,-6.4168364E-1,5E-1,5E-1,5E-1,3.5E0,5E-1,5E0,3.5E0,1.7950224E0,5E-1,-5.0074226E-1,-2.3007424E0,2E0,1.5E0,-1.3821119E0,2.5E0,-1.7655689E0,-3.8021624E-1,1.5E0,1.5E0,2.5E0,8E0,7.5E0,2E0,8E0,3E0,3.0547716E-2,1.1595497E-1,1.0622317E0,-2.5642067E-1,2.4412973E0,1.1058083E0,1.3095896E0,3.86261E-2,-2.7554653E0,4.2812538E-1,5.4004806E-1,-1.6689129E-1,-2.1797545E-2,1.7729126E0,1.8020158E0,8.163971E-1,6.729248E-2,-4.6346545E-1,8.305283E-1,-6.4997715E-1,-2.6504603E-1,6.634445E-1,2.93437E0,6.380234E-1],"split_indices":[11,8,14,0,1,12,1,1,0,15,1,12,1,13,8,0,0,0,2,3,4,5,6,0,1,0,0,1,12,0,6,0,0,9,7,6,12,12,6,8,8,0,0,0,0,0,0,0,0,0,0,0,0,0,0,0,0,0,0,0,0,0,0,0,0],"split_type":[0,0,0,0,0,0,0,0,0,0,0,0,0,0,0,0,0,0,0,0,0,0,0,0,0,0,0,0,0,0,0,0,0,0,0,0,0,0,0,0,0,0,0,0,0,0,0,0,0,0,0,0,0,0,0,0,0,0,0,0,0,0,0,0,0],"sum_hessian":[1.565E3,1.3E1,1.552E3,3E0,1E1,7.8E1,1.474E3,8E0,2E0,6.9E1,9E0,1.004E3,4.7E2,6E0,2E0,2E0,6.7E1,6E0,3E0,5.55E2,4.49E2,1.48E2,3.22E2,4E0,2E0,1E0,1E0,2.7E1,4E1,1E0,5E0,1E0,2E0,9E0,5.46E2,1.18E2,3.31E2,1.25E2,2.3E1,2.59E2,6.3E1,1E0,1E0,2.3E1,4E0,1.4E1,2.6E1,4E0,1E0,4E0,5E0,5.07E2,3.9E1,9.8E1,2E1,4.3E1,2.88E2,7.7E1,4.8E1,1.8E1,5E0,9.2E1,1.67E2,1E1,5.3E1],"tree_param":{"num_deleted":"0","num_feature":"17","num_nodes":"65","size_leaf_vector":"0"}},{"base_weights":[1.3059971E0,1.1823786E0,2.8129232E0,-7.8668857E-1,1.2724493E0,1.83423E0,5.385842E0,-4.081701E0,1.0364536E0,1.3210516E0,-3.2578773E0,1.3021494E0,8.800292E0,1.1771558E1,3.7673182E0,-4.697506E0,4.7330046E0,1.88283E0,-4.35561E0,5.5339527E0,1.2829356E0,-8.98144E0,-1.6864493E0,2.90757E0,-1.1697649E0,1.4330635E1,-5.119152E-1,4.6761713E0,-1.1668705E0,-5.6634765E0,-1.1776713E0,1.4355127E0,6.4739223E0,-9.170437E-2,-5.19005E0,9.912731E0,2.9729452E0,1.2428838E0,5.3404007E0,1.6322861E0,-2.0990345E0,-2.3883588E0,3.549081E0,7.004222E0,-2.538736E0,5.4609914E0,-4.1697216E-1,1.5135593E0,-2.2153678E0,-8.508301E-2,-6.40159E0,-5.6488376E0,2.4701211E0,3.9038856E0,8.939877E-1,7.817157E0,1.8937263E0,-5.934426E0,-1.1062737E0,4.065271E-1,7.9702725E0,1.5331422E0,7.2096914E-1,-2.1985169E-1,7.836052E0,1.5749645E0,-2.576213E0,-3.3368182E0,-3.2762656E-1,5.421185E0,1.6851071E0,9.885824E0,-2.261095E0,-4.9293957E0,-8.0392224E-1,2.7378647E0,7.9103317E0,1.8738384E0,-1.8051885E0,-1.0139097E0,-2.909871E0],"categories":[],"categories_nodes":[],"categories_segments":[],"categories_sizes":[],"default_left":[1,1,1,1,1,1,1,1,1,1,1,1,0,1,1,1,0,1,1,1,1,0,1,1,1,0,0,1,1,1,1,1,1,0,1,0,1,1,1,0,1,1,1,1,1,1,1,0,1,0,0,0,0,0,0,0,0,0,0,0,0,0,0,0,0,0,0,0,0,0,0,0,0,0,0,0,0,0,0,0,0],"id":9,"left_children":[1,3,5,7,9,11,13,15,17,19,21,23,-1,25,27,29,-1,31,33,35,37,-1,39,41,43,-1,-1,45,47,49,51,53,55,-1,57,-1,59,61,63,-1,65,67,69,71,73,75,77,-1,79,-1,-1,-1,-1,-1,-1,-1,-1,-1,-1,-1,-1,-1,-1,-1,-1,-1,-1,-1,-1,-1,-1,-1,-1,-1,-1,-1,-1,-1,-1,-1,-1],"loss_changes":[2.8839478E2,2.579884E2,2.8725665E2,3.8869617E2,3.0947974E2,3.1100674E2,2.8638654E2,1.4708054E2,1.9987692E2,2.132146E2,1.1976575E2,3.2881503E2,0E0,1.9594232E2,1.2653671E2,6.813153E1,0E0,6.66926E1,2.0871895E1,1.0509897E2,2.1453735E2,0E0,2.122662E1,1.7834631E2,3.8705032E2,0E0,0E0,9.421274E1,1.7405209E1,6.945264E1,1.1181262E2,4.329396E1,3.653267E0,0E0,8.634216E0,0E0,1.1218696E2,2.0325488E2,1.8211667E2,0E0,2.5095287E1,1.0633896E1,1.4789465E2,1.5584761E2,1.1631029E2,1.1173987E2,1.6103193E1,0E0,3.8731956E-1,0E0,0E0,0E0,0E0,0E0,0E0,0E0,0E0,0E0,0E0,0E0,0E0,0E0,0E0,0E0,0E0,0E0,0E0,0E0,0E0,0E0,0E0,0E0,0E0,0E0,0E0,0E0,0E0,0E0,0E0,0E0,0E0],"parents":[2147483647,0,0,1,1,2,2,3,3,4,4,5,5,6,6,7,7,8,8,9,9,10,10,11,11,13,13,14,14,15,15,17,17,18,18,19,19,20,20,22,22,23,23,24,24,27,27,28,28,29,29,30,30,31,31,32,32,34,34,36,36,37,37,38,38,40,40,41,41,42,42,43,43,44,44,45,45,46,46,48,48],"right_children":[2,4,6,8,10,12,14,16,18,20,22,24,-1,26,28,30,-1,32,34,36,38,-1,40,42,44,-1,-1,46,48,50,52,54,56,-1,58,-1,60,62,64,-1,66,68,70,72,74,76,78,-1,80,-1,-1,-1,-1,-1,-1,-1,-1,-1,-1,-1,-1,-1,-1,-1,-1,-1,-1,-1,-1,-1,-1,-1,-1,-1,-1,-1,-1,-1,-1,-1,-1],"split_conditions":[5E-1,1.5E0,6.5E0,8.5E0,5E-1,1.5E0,2.5E0,7E0,2.5E0,5E-1,3E0,8E0,2.6400876E0,2E0,2.5E0,1.5E0,1.4199014E0,7E0,5E-1,6.5E0,4.5E0,-2.694432E0,2.5E0,1.5E0,5E-1,4.2991905E0,-1.5357457E-1,5E0,2.5E0,5E-1,5E-1,5E-1,8.5E0,-2.7511312E-2,6.5E0,2.9738195E0,4E0,5E-1,5E-1,4.8968583E-1,5E-1,2.5E0,3E0,1.5E0,6.5E0,5E-1,5E-1,4.5406783E-1,7.5E0,-2.5524903E-2,-1.920477E0,-1.6946514E0,7.4103636E-1,1.1711657E0,2.681963E-1,2.3451471E0,5.681179E-1,-1.7803278E0,-3.3188212E-1,1.2195814E-1,2.3910818E0,4.5994267E-1,2.1629076E-1,-6.595551E-2,2.3508158E0,4.724894E-1,-7.728639E-1,-1.0010455E0,-9.828797E-2,1.6263555E0,5.0553215E-1,2.9657474E0,-6.783285E-1,-1.4788188E0,-2.4117668E-1,8.2135946E-1,2.3730996E0,5.6215155E-1,-5.415566E-1,-3.0417293E-1,-8.7296134E-1],"split_indices":[2,5,1,8,10,7,5,11,7,11,3,12,0,7,6,9,0,1,4,8,3,0,5,5,4,0,0,5,3,6,4,4,1,0,1,0,1,1,0,0,7,6,9,1,8,12,4,0,1,0,0,0,0,0,0,0,0,0,0,0,0,0,0,0,0,0,0,0,0,0,0,0,0,0,0,0,0,0,0,0,0],"split_type":[0,0,0,0,0,0,0,0,0,0,0,0,0,0,0,0,0,0,0,0,0,0,0,0,0,0,0,0,0,0,0,0,0,0,0,0,0,0,0,0,0,0,0,0,0,0,0,0,0,0,0,0,0,0,0,0,0,0,0,0,0,0,0,0,0,0,0,0,0,0,0,0,0,0,0,0,0,0,0,0,0],"sum_hessian":[1.565E3,1.448E3,1.17E2,6.3E1,1.385E3,8.6E1,3.1E1,2.2E1,4.1E1,1.371E3,1.4E1,8.1E1,5E0,5E0,2.6E1,2.1E1,1E0,3.6E1,5E0,1.1E1,1.36E3,2E0,1.2E1,4.9E1,3.2E1,4E0,1E0,2.2E1,4E0,1.6E1,5E0,3.4E1,2E0,1E0,4E0,3E0,8E0,1.348E3,1.2E1,1E0,1.1E1,5E0,4.4E1,4E0,2.8E1,1.9E1,3E0,1E0,3E0,2E0,1.4E1,2E0,3E0,5E0,2.9E1,1E0,1E0,3E0,1E0,6E0,2E0,8.65E2,4.83E2,4E0,8E0,1E0,1E1,3E0,2E0,2.1E1,2.3E1,3E0,1E0,1.1E1,1.7E1,1E1,9E0,1E0,2E0,2E0,1E0],"tree_param":{"num_deleted":"0","num_feature":"17","num_nodes":"81","size_leaf_vector":"0"}}]},"name":"gbtree"},"learner_model_param":{"base_score":"5E-1","boost_from_average":"1","num_class":"0","num_feature":"17","num_target":"1"},"objective":{"name":"reg:squarederror","reg_loss_param":{"scale_pos_weight":"1"}}},"version":[1,7,5]}